svm_type c_svc
kernel_type rbf
gamma 0.50625
nr_class 5
total_sv 430
rho 3.55265 -1.23858 0.197665 1.84268 -1.55449 0.374994 -0.212423 1.06051 1.38763 0.573386
label 1 2 3 4 5
probA -2.96537 -3.38103 -2.66254 -3.13531 -3.49118 -3.26708 -3.48769 -3.39542 -3.28909 -3.83997
probB 0.0981959 -0.0632929 -0.0862224 -0.426996 0.0578829 0.0606108 -0.229399 0.357054 0.2218 -0.504583
nr_sv 122 122 72 57 57
SV
2.5 2.5 2.5 0 1:6.0527096e-005 2:0.29039201 3:1 4:0 5:0.12571203 
0 2.5 0 0 1:0.090554695 2:0.63361338 3:0.33333333 4:0.29166667 5:0.23252496 
2.5 0 0 0 1:0.51404366 2:0.6382284 3:0.40425532 4:0.53191489 5:0.51280019 
0 2.5 0 0 1:0.09385705 2:0.5558347 3:0.47368421 4:0.47368421 5:0.24409574 
0 2.5 0 1.092267192639834 1:0.071114963 2:0.67279665 3:0.28571429 4:0.38095238 5:0.28726819 
2.5 0 0 0 1:0.25918906 2:0.56450363 3:0.33333333 4:0.29166667 5:0.31235606 
2.5 0 0 0 1:0.57334741 2:0.6278068 3:0.24528302 4:0.45283019 5:0.36621332 
2.5 2.5 2.5 0 1:0.27700319 2:0.50845871 3:0.4375 4:0.0625 5:0.22682045 
2.5 0 0 0 1:0.38186801 2:0.55239565 3:0.5 4:0.34090909 5:0.38365884 
2.5 0 2.5 0 1:0.37765918 2:0.48060306 3:0.29166667 4:0 5:0.26004468 
2.5 2.5 0 2.5 1:0.16864305 2:0.53311399 3:0.0625 4:0.3125 5:0.17492867 
2.5 0 0 0 1:0.62805997 2:0.54804812 3:0.48148148 4:0.27777778 5:0.51037319 
0 2.5 0 0 1:0.19033392 2:0.51162234 3:0.36842105 4:0.21052632 5:0.18016227 
2.5 2.5 2.5 0 1:0.00051732706 2:0.467842 3:0.33333333 4:0 5:0.10686554 
2.5 2.5 2.5 0 1:0.25144974 2:0.49127351 3:0.61111111 4:0 5:0.20167732 
2.5 0 2.5 0 1:0.63576082 2:0.52054434 3:0.46031746 4:0.063492063 5:0.27879373 
0 0 2.5 0 1:0.25317038 2:0.46546079 3:0.66666667 4:0.25 5:0.12527357 
0 2.5 0 2.5 1:0.083959876 2:0.65492441 3:0.26315789 4:0.52631579 5:0.20975635 
2.5 0 0 0 1:0.61717193 2:0.56308454 3:0.5 4:0.41071429 5:0.47887443 
0 0 0 2.5 1:0.31348761 2:0.63013154 3:0.0625 4:0.5 5:0.19008738 
0 0 0 2.5 1:0.34804984 2:0.63921524 3:0.17647059 4:0.41176471 5:0.27017304 
2.5 0 0 2.5 1:0.55174877 2:0.57325386 3:0.068181818 4:0.18181818 5:0.31633381 
0 2.5 0 0 1:0.10333826 2:0.63188499 3:0.42857143 4:0.42857143 5:0.2074314 
2.5 0 0 0 1:0.19345571 2:0.63218349 3:0.37096774 4:0.41935484 5:0.51384655 
2.5 0 0 0 1:0.53780111 2:0.5543202 3:0.38461538 4:0.30769231 5:0.47709621 
0 2.5 0 0 1:0.037503243 2:0.51681221 3:0.30434783 4:0.39130435 5:0.24033623 
2.5 0 0 0 1:0.37749725 2:0.50854368 3:0.35 4:0.05 5:0.44975407 
2.5 0 0 0 1:0.58027192 2:0.56978226 3:0.44927536 4:0.44927536 5:0.58065855 
2.5 0 0 2.5 1:0.50461728 2:0.60930753 3:0.05 4:0.4 5:0.2139161 
0 0 0 1.537108786044247 1:0.41555392 2:0.69203277 3:0.33333333 4:0.53333333 5:0.19502862 
0 2.5 0 0 1:0.2434452 2:0.57268107 3:0.35294118 4:0.17647059 5:0.20228602 
2.5 0 0 0 1:0.69915135 2:0.51176263 3:0.52272727 4:0.22727273 5:0.45332442 
2.5 0 2.5 0 1:0.40474467 2:0.54704889 3:0.38095238 4:0.047619048 5:0.22882698 
0 0 2.5 0 1:0.73337643 2:0.48380169 3:0.63333333 4:0.066666667 5:0.23928138 
0 2.5 0 0 1:0.086184294 2:0.49252088 3:0.4375 4:0.3125 5:0.23973688 
2.5 0 2.5 0 1:0.57599215 2:0.42697354 3:0.60714286 4:0.071428571 5:0.26488852 
2.5 0 2.5 0 1:0.74303256 2:0.52150065 3:0.43902439 4:0 5:0.32400143 
2.5 0 0 0 1:0.53992754 2:0.54945048 3:0.39473684 4:0.21052632 5:0.45348572 
2.5 0 2.5 0 1:0.64182641 2:0.51515836 3:0.525 4:0.125 5:0.32824694 
2.5 0 2.5 0 1:0.53312528 2:0.51077378 3:0.48717949 4:0.1025641 5:0.32524347 
2.5 0.03919753901991184 2.5 0 1:0.3156214 2:0.52324334 3:0.42857143 4:0 5:0.1956876 
2.5 0 0 0 1:0.51947118 2:0.54021709 3:0.4375 4:0.25 5:0.34911684 
2.5 0 2.5 0 1:0.53192821 2:0.45774471 3:0.67647059 4:0.14705882 5:0.33115597 
2.5 0 2.5 0 1:0.55309165 2:0.46485363 3:0.53191489 4:0.063829787 5:0.37234135 
1.46642071014795 0 0 2.5 1:0.39595667 2:0.6826553 3:0 4:0.4375 5:0.16059662 
2.5 0 2.5 0 1:0.31505034 2:0.50584476 3:0.4 4:0.05 5:0.20464708 
2.5 0 0 0 1:0.39649461 2:0.553635 3:0.2173913 4:0.2173913 5:0.24812767 
0 2.5 0 2.5 1:0.15079109 2:0.59767904 3:0.3125 4:0.5 5:0.18633352 
2.5 0 0 0 1:0.35475638 2:0.56599233 3:0.51612903 4:0.38709677 5:0.44222398 
0 0 1.873455410157999 0 1:0.32170178 2:0.51828824 3:0.5862069 4:0.20689655 5:0.29774505 
2.5 0 0 2.5 1:0.27950249 2:0.64498138 3:0.058823529 4:0.47058824 5:0.22069075 
0 0 2.5 0 1:0.40831265 2:0.49603975 3:0.48 4:0.12 5:0.18113327 
0 0 0 2.5 1:0.41379289 2:0.64755882 3:0.23529412 4:0.55882353 5:0.23889301 
2.5 0 0 0 1:0.48596442 2:0.56829293 3:0.45652174 4:0.41304348 5:0.50438016 
2.5 0 2.5 0 1:0.47004388 2:0.46957002 3:0.64102564 4:0.12820513 5:0.45550914 
2.5 0 2.5 0 1:0.54040676 2:0.31287803 3:1 4:0 5:0.16215836 
0 2.5 0 0 1:0.14929648 2:0.57537617 3:0.47058824 4:0.29411765 5:0.19436663 
0 2.5 0 0 1:0.077860201 2:0.5597425 3:0.42105263 4:0.36842105 5:0.21847806 
2.5 0 0 0 1:0.6056847 2:0.51527204 3:0.5 4:0.23529412 5:0.39889444 
2.5 0 2.5 0 1:0.29054723 2:0.43503623 3:0.58823529 4:0.058823529 5:0.27102526 
0 0 0 2.5 1:0.19965891 2:0.75184926 3:0.27272727 4:0.45454545 5:0.27530417 
2.5 2.5 2.5 0 1:8.6086929e-005 2:0.36333992 3:1 4:0 5:0.12676519 
0 2.5 2.5 0 1:0.057200021 2:0.54905293 3:0.4375 4:0.125 5:0.18764591 
0 2.5 0 0 1:0.16418805 2:0.54269136 3:0.31578947 4:0.42105263 5:0.22583498 
2.5 0 0 0 1:0.40269738 2:0.57472074 3:0.47368421 4:0.36842105 5:0.43352871 
2.5 0 0 0 1:0.53653443 2:0.53592295 3:0.45714286 4:0.22857143 5:0.41998905 
2.5 0 0 0 1:0.4723445 2:0.47838563 3:0.58823529 4:0.20588235 5:0.36225556 
2.5 0 0 0 1:0.42183135 2:0.5643185 3:0.47826087 4:0.26086957 5:0.36204363 
0 0 0 2.5 1:0.38184028 2:0.59013664 3:0.2 4:0.26666667 5:0.20252972 
2.5 2.5 2.5 0 1:0.16238409 2:0.43495429 3:0.64705882 4:0.058823529 5:0.26784593 
2.5 0 0 0 1:0.34453773 2:0.55905617 3:0.32 4:0.24 5:0.29426217 
2.5 0 0 0 1:0.49510516 2:0.5819396 3:0.54545455 4:0.25 5:0.40949191 
2.5 0 0 0 1:0.42815467 2:0.49698516 3:0.6 4:0.25714286 5:0.36420097 
2.5 0 0 0 1:0.36325851 2:0.54871857 3:0.46666667 4:0.3 5:0.40321826 
2.5 0 0 0 1:0.53621698 2:0.53875543 3:0.44 4:0.24 5:0.35306705 
0 2.5 0 0 1:0.1167685 2:0.50376201 3:0.42857143 4:0.35714286 5:0.21484358 
0 0 2.5 0 1:0.59811753 2:0.51867813 3:0.5625 4:0.25 5:0.13843736 
0 2.5 0 0 1:0.1026469 2:0.58788473 3:0.4 4:0.4 5:0.25438481 
2.5 2.5 0 2.5 1:0.0032097366 2:0.78863654 3:0 4:0.71428571 5:0.10687021 
0 2.5 0 0 1:0.15040756 2:0.61649351 3:0.42105263 4:0.36842105 5:0.25307136 
0 1.27140688863812 0 0 1:0.11148384 2:0.59034304 3:0.44 4:0.48 5:0.24767817 
0 2.5 0 0 1:0.18612341 2:0.43759929 3:0.41176471 4:0.23529412 5:0.21896882 
0 2.5 0 0 1:0.15948798 2:0.5699345 3:0.33333333 4:0.4 5:0.23925937 
0 2.5 0 0 1:0.11515084 2:0.55170564 3:0.42105263 4:0.42105263 5:0.21661427 
0 1.353956683465759 0 0 1:0.17536915 2:0.50647555 3:0.4375 4:0.375 5:0.20854482 
0 2.5 0 0 1:0.19838288 2:0.58842126 3:0.375 4:0.3125 5:0.22475828 
0 2.5 0 0 1:0.26240209 2:0.43690923 3:0.33333333 4:0.2 5:0.18909663 
0 2.5 0 0 1:0.12223007 2:0.56682436 3:0.47368421 4:0.31578947 5:0.20830471 
0 2.5 0 0 1:0.18397688 2:0.44948713 3:0.375 4:0.3125 5:0.16810937 
0 2.5 0 0 1:0.15526465 2:0.67339265 3:0.30769231 4:0.30769231 5:0.23645885 
0 2.5 0 0 1:0.19963431 2:0.65400874 3:0.375 4:0.1875 5:0.19114507 
0 2.5 0 0 1:0.13178403 2:0.5261813 3:0.47058824 4:0.29411765 5:0.23093405 
0 2.5 0 0 1:0.15701486 2:0.61752232 3:0.44444444 4:0.33333333 5:0.23868549 
2.5 2.5 0 2.5 1:0.0063944026 2:0.90398156 3:0 4:0.85714286 5:0.12154234 
2.5 0 2.5 0 1:0.52981198 2:0.32163443 3:0.90909091 4:0 5:0.12652835 
0 2.5 0 0 1:0.21591205 2:0.5809363 3:0.30769231 4:0.30769231 5:0.25981085 
2.5 0 0 0 1:0.30446861 2:0.5075398 3:0.36363636 4:0.36363636 5:0.32858937 
2.5 2.5 0 0 1:0.17154432 2:0.5915549 3:0.26315789 4:0.36842105 5:0.32417754 
2.5 0 0 0 1:0.32065545 2:0.57312302 3:0.29166667 4:0.29166667 5:0.30098966 
2.5 0 0 0 1:0.43539883 2:0.57403951 3:0.34615385 4:0.38461538 5:0.36233951 
2.5 0 0 0 1:0.32767027 2:0.51448988 3:0.28571429 4:0.38095238 5:0.30271024 
2.5 0 0 0 1:0.63635177 2:0.49681513 3:0.63636364 4:0.34545455 5:0.46221271 
2.5 0 0 0 1:0.58591855 2:0.51215321 3:0.55223881 4:0.43283582 5:0.45837892 
2.5 0 0 0 1:0.70407311 2:0.62094882 3:0.42857143 4:0.55357143 5:0.49812181 
2.5 0 0 2.5 1:0.26764819 2:0.83350059 3:0 4:0.81818182 5:0.14235264 
2.5 0 0 2.5 1:0.28491085 2:0.63752023 3:0.19047619 4:0.33333333 5:0.33363761 
2.5 0 0 0 1:0.23962993 2:0.49057566 3:0.31818182 4:0.40909091 5:0.31291781 
1.923248664286099 0 0 0 1:0.57819004 2:0.56781559 3:0.54545455 4:0.45454545 5:0.45710718 
0 2.5 0 0 1:0.083582528 2:0.58567354 3:0.44444444 4:0.44444444 5:0.26185139 
0 0 0 2.5 1:0.5731527 2:0.65784062 3:0.30769231 4:0.46153846 5:0.16983704 
2.5 0 0 0 1:0.51412923 2:0.57634906 3:0.52941176 4:0.45098039 5:0.45687186 
0 2.5 0 0 1:0.15004033 2:0.53816081 3:0.46153846 4:0.30769231 5:0.18598787 
0 0 0 2.5 1:0.19679522 2:0.65926403 3:0.34782609 4:0.60869565 5:0.22392721 
0 0 0 2.5 1:0.42860041 2:0.63996821 3:0.3 4:0.55 5:0.22760326 
2.5 2.5 0 2.5 1:0.15700982 2:0.65126995 3:0.2173913 4:0.43478261 5:0.31973766 
2.5 0 0 0 1:0.23963799 2:0.431108 3:0.36363636 4:0.27272727 5:0.31363225 
2.5 0 0 2.5 1:0.28224728 2:0.63560515 3:0.20833333 4:0.41666667 5:0.32298887 
0 2.5 2.5 0 1:0.178922 2:0.48112567 3:0.63636364 4:0.18181818 5:0.1900801 
2.5 0 0 2.5 1:0.2845653 2:0.62726947 3:0.17391304 4:0.39130435 5:0.2748038 
0 0 0 2.5 1:0.50759767 2:0.62392745 3:0.19047619 4:0.28571429 5:0.27751942 
0 2.5 0 2.5 1:0.12371526 2:0.72267983 3:0.19047619 4:0.33333333 5:0.16003935 
2.5 0 0 2.5 1:0.27720013 2:0.67150985 3:0.14285714 4:0.33333333 5:0.2784777 
-0 2.5 0 0 1:0.2240505 2:0.22544441 3:0.52380952 4:0.047619048 5:0.32897772 
-2.5 0 0 0 1:0.38383671 2:0.51663618 3:0.3 4:0.033333333 5:0.40036513 
-0 0 0 1.148113764240288 1:0.62417734 2:0.20288978 3:0.076923077 4:0.076923077 5:0.30725462 
-0 0 2.5 0 1:0.34693047 2:0.31953921 3:0.84615385 4:0 5:0.3510647 
-2.5 0 0 0 1:0.39621957 2:0.51844485 3:0.23333333 4:0.066666667 5:0.34242051 
-2.5 0 2.5 2.5 1:0.55614632 2:0.68448647 3:0 4:0.25806452 5:0.22223609 
-2.5 0 2.5 0 1:0.66620676 2:0.48203745 3:0.25925926 4:0 5:0.2666175 
-2.5 0 2.5 0 1:0.67428571 2:0.43251706 3:0.5862069 4:0 5:0.20612445 
-2.5 0 0 0 1:0.46126533 2:0.5351968 3:0.25641026 4:0.076923077 5:0.32638564 
-0 0.9146101797007309 2.5 2.5 1:0.37327634 2:0.26410669 3:0.029411765 4:0 5:0.22159047 
-2.5 0 0 2.5 1:0.41241493 2:0.72969693 3:0.025 4:0.725 5:0.37339515 
-2.5 0 0 2.5 1:0.40698644 2:0.70336441 3:0.029411765 4:0.52941176 5:0.37878428 
-0 0 2.5 0 1:0.3296458 2:0.34206083 3:0.86666667 4:0 5:0.40575468 
-2.5 0 2.5 0 1:0.52140037 2:0.36078622 3:0.78125 4:0.03125 5:0.35100345 
-2.5 0 0 2.5 1:0.51112596 2:0.7380934 3:0.051282051 4:0.64102564 5:0.3311965 
-2.5 0 0 2.5 1:0.44197957 2:0.80113939 3:0 4:0.75609756 5:0.33250038 
-0 0 2.5 0 1:0.30969942 2:0.27661279 3:0.75 4:0.041666667 5:0.36027275 
-0 0.02596427306857421 2.5 0 1:0.26269244 2:0.39478132 3:0.76923077 4:0 5:0.36243955 
-2.5 2.5 2.5 2.457156695241773 1:0.43607859 2:0.52622334 3:0.40740741 4:0.074074074 5:0.22430026 
-2.5 0 2.5 0 1:0.49036878 2:0.31124788 3:0.95238095 4:0 5:0.22879889 
-2.5 0 0 2.5 1:0.38796257 2:0.71383557 3:0 4:0.48571429 5:0.32568619 
-2.5 2.5 0 0 1:0.18613835 2:0.3627151 3:0.48 4:0.08 5:0.31930822 
-2.5 0 2.5 0 1:0.41809378 2:0.3065991 3:0.72972973 4:0.054054054 5:0.34522111 
-0 0 2.5 0 1:0.27380639 2:0.29376806 3:0.81481481 4:0.037037037 5:0.33098074 
-2.5 0 2.5 0 1:0.39710308 2:0.31881263 3:0.64 4:0.04 5:0.29288438 
-0 0 0 2.5 1:0.59833235 2:0.89352823 3:0 4:0.93650794 5:0.48611448 
-2.5 0 0 2.5 1:0.39094578 2:0.88575284 3:0.033333333 4:0.73333333 5:0.38715908 
-0 2.5 1.342429597877223 0 1:0.18765388 2:0.24831131 3:0.40740741 4:0.037037037 5:0.29953968 
-2.5 0 0 0 1:0.27747407 2:0.56226054 3:0.41176471 4:0.27941176 5:0.51213711 
-2.5 0 0 0 1:0.673127 2:0.44227795 3:0.70833333 4:0.25 5:0.43260175 
-2.5 0 2.5 0 1:0.47271392 2:0.31940666 3:0.93333333 4:0 5:0.21899964 
-2.5 0 0 0 1:0.2325953 2:0.53908574 3:0.49122807 4:0.33333333 5:0.54156562 
-2.5 0 0 0 1:0.41437092 2:0.56729385 3:0.25531915 4:0.4893617 5:0.42695699 
-0 0 0 2.5 1:0.57121987 2:0.87866062 3:0 4:0.94871795 5:0.3665528 
-2.5 0 0 0 1:0.28178046 2:0.6034828 3:0.31666667 4:0.38333333 5:0.51064345 
-1.325278310121895 0 0 0 1:0.49083707 2:0.60055122 3:0.35 4:0.18333333 5:0.56031932 
-2.5 0 0 0 1:0.47879647 2:0.5420106 3:0.47058824 4:0.41176471 5:0.46821297 
-0 0 2.5 0 1:0.53046246 2:0.31731161 3:0.91891892 4:0 5:0.39796323 
-2.5 0 0 0 1:0.37739833 2:0.50835546 3:0.2173913 4:0.45652174 5:0.50608501 
-1.199793177230395 0 0 0 1:0.26893293 2:0.48117391 3:0.41071429 4:0.23214286 5:0.50956341 
-2.5 0 0 0 1:0.24919176 2:0.6021219 3:0.34615385 4:0.40384615 5:0.50275071 
-2.5 0 0 0 1:0.55385507 2:0.45858328 3:0.45098039 4:0 5:0.44461851 
-2.5 2.5 0 0 1:0.2559374 2:0.68062341 3:0.14285714 4:0.46428571 5:0.38858951 
-2.5 0 0 0 1:0.49602041 2:0.53079891 3:0.49382716 4:0.38271605 5:0.64693951 
-0 0 2.5 0 1:0.38073803 2:0.28823756 3:0.88 4:0 5:0.28504872 
-0 0 0 2.5 1:0.5604046 2:0.87232493 3:0.03125 4:0.9375 5:0.34296208 
-2.5 0 0 0 1:0.32988966 2:0.4345132 3:0.42857143 4:0.2 5:0.39755784 
-2.5 0 0 0 1:0.41627423 2:0.59525887 3:0.36363636 4:0.53030303 5:0.57615134 
-2.5 0 0 2.5 1:0.38854786 2:0.86479002 3:0.025 4:0.825 5:0.32754052 
-2.5 0 0 0 1:0.23984477 2:0.5211927 3:0.39130435 4:0.32608696 5:0.51310038 
-2.5 2.5 0 0 1:0.15760948 2:0.6325863 3:0.29411765 4:0.17647059 5:0.46993224 
-0.04175993957707809 2.5 0 0 1:0.25012419 2:0.39281066 3:0.67346939 4:0.06122449 5:0.38891053 
-2.5 0 0 0 1:0.3150084 2:0.48606597 3:0.4047619 4:0.26190476 5:0.50224164 
-2.5 0 0 0 1:0.4173029 2:0.64733216 3:0.36 4:0.42 5:0.5154343 
-2.5 0 0 2.5 1:0.58999546 2:0.57402074 3:0.03030303 4:0.03030303 5:0.34681936 
-2.5 0 0 2.5 1:0.34985016 2:0.88413398 3:0.032258065 4:0.87096774 5:0.25419546 
-2.5 0 0 0 1:0.44604565 2:0.46835306 3:0.5 4:0.25 5:0.50429039 
-0 0 2.5 0 1:0.7431309 2:0.34642944 3:1 4:0 5:0.31092595 
-2.5 0 2.5 0 1:0.49581866 2:0.36170032 3:0.77777778 4:0.037037037 5:0.36575887 
-0 1.559425547230695 0 0 1:0.16030455 2:0.70668724 3:0.052631579 4:0.50877193 5:0.46494979 
-2.5 0 0 2.431091463966155 1:0.36213656 2:0.63285641 3:0.073170732 4:0.48780488 5:0.41222363 
-2.5 0 0 0 1:0.40286827 2:0.51517396 3:0.46296296 4:0.37037037 5:0.59330386 
-0 0 2.5 0 1:0.64852583 2:0.30898513 3:1 4:0 5:0.38852292 
-2.5 0 0 2.5 1:0.60703332 2:0.58498073 3:0.035714286 4:0.10714286 5:0.2935445 
-0 0 2.5 0 1:0.46132678 2:0.36402478 3:0.77142857 4:0 5:0.36985646 
-1.350896815757727 2.5 0 2.5 1:0.13138141 2:0.75269804 3:0.04 4:0.58 5:0.42246434 
-2.5 0 0 0 1:0.32487773 2:0.55845152 3:0.34146341 4:0.31707317 5:0.46211808 
-2.5 0 0 0 1:0.44684533 2:0.5555776 3:0.45 4:0.275 5:0.45756063 
-2.5 0 0 0 1:0.68294856 2:0.52959714 3:0.052631579 4:0 5:0.34470967 
-2.5 0 2.5 0 1:0.62622698 2:0.30111167 3:0.88 4:0.04 5:0.30773715 
-0 2.5 0 0 1:0.087077533 2:0.5867096 3:0.32653061 4:0.30612245 5:0.53774038 
-2.5 0 0 0 1:0.32574185 2:0.37618965 3:0.7027027 4:0.13513514 5:0.36579347 
-2.5 0 2.5 0 1:0.41938458 2:0.27764184 3:0.72727273 4:0.090909091 5:0.25397641 
-0 0 2.5 0 1:0.32226219 2:0.3544808 3:0.73529412 4:0.029411765 5:0.35682095 
-0 2.5 0 0 1:0.19797496 2:0.40882585 3:0.51282051 4:0.1025641 5:0.45118286 
-2.5 0 2.5 0 1:0.54491427 2:0.32356221 3:0.88888889 4:0 5:0.21219686 
-2.5 2.5 0 0 1:0.14681914 2:0.44196664 3:0.54 4:0.12 5:0.40683107 
-2.5 0 2.5 0 1:0.44316453 2:0.43949345 3:0.70967742 4:0.064516129 5:0.35289269 
-2.5 0 2.5 0 1:0.38029911 2:0.36361599 3:0.82051282 4:0.025641026 5:0.288835 
-2.5 0 0 0 1:0.48409598 2:0.38837516 3:0.78947368 4:0.10526316 5:0.43610659 
-2.5 2.5 2.5 0 1:0.25690417 2:0.38238381 3:0.55555556 4:0.055555556 5:0.29833923 
-0 2.5 0 0 1:0.018111339 2:0.50152811 3:0.34 4:0.2 5:0.53633207 
-2.5 0 2.5 0 1:0.34504389 2:0.34212697 3:0.70967742 4:0.096774194 5:0.32705158 
-2.5 2.5 2.5 2.5 1:0.028508555 2:0.63368703 3:0.24137931 4:0.13793103 5:0.20778831 
-2.5 0 2.5 0 1:0.42634238 2:0.27125959 3:0.81481481 4:0.074074074 5:0.30943084 
-0 2.5 0 0 1:0.047547984 2:0.56061199 3:0.33898305 4:0.23728814 5:0.61340942 
-2.5 2.5 0 0.9054140648779809 1:0.053908618 2:0.6311899 3:0.38888889 4:0.36111111 5:0.30041282 
-0 2.5 0 0 1:0.072628629 2:0.58639346 3:0.27659574 4:0.29787234 5:0.57851507 
-2.5 2.5 0 0 1:0.10404825 2:0.48307268 3:0.4 4:0.17142857 5:0.40215862 
-2.5 0 0 0 1:0.26109053 2:0.40015768 3:0.57894737 4:0.13157895 5:0.41695039 
-0 2.5 0 0 1:0.062877291 2:0.44774465 3:0.44230769 4:0.13461538 5:0.59166314 
-2.5 2.5 2.5 0 1:0.30412681 2:0.46425878 3:0.72222222 4:0.11111111 5:0.28728608 
-2.5 2.5 2.5 0 1:0.33456067 2:0.40081359 3:0.75 4:0.083333333 5:0.1864194 
-0 0 2.5 0 1:0.36348505 2:0.32971301 3:0.75 4:0.035714286 5:0.35423913 
-0 0 2.5 0 1:0.7379003 2:0.29869007 3:0.97435897 4:0 5:0.45927194 
-0 0 0 2.5 1:0.56174627 2:0.76723555 3:0.027777778 4:0.75 5:0.44682705 
-2.5 0 0 2.5 1:0.46347541 2:0.76013043 3:0 4:0.78947368 5:0.34925584 
-0 0 0 2.5 1:0.54820583 2:0.88054273 3:0 4:0.875 5:0.48769332 
-0 0 0 2.5 1:0.44548998 2:0.85673033 3:0.025641026 4:0.8974359 5:0.41545646 
-0 0 0 2.5 1:0.46815515 2:0.84291235 3:0.025 4:0.9 5:0.42389824 
-2.5 0 0 0 1:0.37775237 2:0.53891898 3:0.22857143 4:0.085714286 5:0.4331999 
-2.5 0 0 0 1:0.53107555 2:0.52182329 3:0.22857143 4:0.028571429 5:0.38405534 
-0 0 0 1.598671278895085 1:0.35384941 2:0.76951686 3:0 4:0.82051282 5:0.47829861 
-0 0 0 2.5 1:0.61910674 2:0.80130866 3:0 4:0.80555556 5:0.47345907 
-0 0 0 2.5 1:0.54857926 2:0.84677823 3:0 4:0.89189189 5:0.43646298 
-2.5 0 0 0 1:0.52254426 2:0.50807598 3:0.28571429 4:0.057142857 5:0.36267727 
-0 0 0 2.5 1:0.4346822 2:0.81049502 3:0.025641026 4:0.92307692 5:0.48050464 
-0 0 0 2.5 1:0.51307192 2:0.82405692 3:0 4:0.92307692 5:0.47981819 
-0 0 0 2.5 1:0.50432641 2:0.80282896 3:0.05 4:0.875 5:0.40546746 
-0 0 2.5 0 1:0.70350989 2:0.3861855 3:0.92307692 4:0 5:0.46929718 
-0 0 2.5 0 1:0.66132148 2:0.3579623 3:0.97142857 4:0 5:0.414559 
-0 0 2.5 0 1:0.60186767 2:0.38188372 3:0.94285714 4:0 5:0.42604669 
-1.971941131746955 0 0 2.5 1:0.72711173 2:0.85173185 3:0 4:0.93103448 5:0.27349865 
-0 0 1.376506430739918 0 1:0.72743451 2:0.36954777 3:0.95 4:0 5:0.47700181 
-0 0 2.5 0 1:0.69103811 2:0.3518186 3:0.97368421 4:0 5:0.41371737 
-0 0 2.5 0 1:0.64984837 2:0.4042307 3:0.89189189 4:0 5:0.41019512 
-0 0 0 2.5 1:0.51351509 2:0.82461528 3:0.020408163 4:0.87755102 5:0.49271959 
-0 0 2.5 0 1:0.69569118 2:0.37700404 3:0.97142857 4:0 5:0.46172624 
-0 0 0 2.5 1:0.49666816 2:0.86654771 3:0 4:0.92592593 5:0.45353424 
-2.5 0 0 0 1:0.48000938 2:0.79168275 3:0.16981132 4:0.49056604 5:0.54164488 
-0 0 0 2.5 1:0.37820901 2:0.8507766 3:0.051282051 4:0.92307692 5:0.4526532 
-0 0 0 2.5 1:0.421219 2:0.85121008 3:0 4:0.875 5:0.47305763 
-0 -0 2.5 0 1:0.0044667462 2:0.38823036 3:0.53333333 4:0.066666667 5:0.12556219 
-2.5 -0 0 0 1:0.012641487 2:0.60938146 3:0.27777778 4:0.38888889 5:0.19251926 
-0 -0 0 2.5 1:0.0045646432 2:0.57207678 3:0.16666667 4:0.375 5:0.19703464 
-0 -2.5 0 0 1:0.0021261593 2:0.59741522 3:0.2 4:0.32 5:0.32617189 
-2.5 -2.5 2.5 0 1:0.24089192 2:0.4959324 3:0.33333333 4:0.066666667 5:0.17320782 
-2.5 -0 0 2.5 1:0.0014356833 2:0.58474682 3:0.2 4:0.45 5:0.10458833 
-2.5 -0 0 0 1:0.0026796897 2:0.61725152 3:0.25 4:0.4 5:0.12511039 
-2.5 -0 2.5 0 1:0.0028939717 2:0.40118667 3:0.6 4:0.2 5:0.1119005 
-2.5 -0 0 0 1:0.01677113 2:0.57232708 3:0.27272727 4:0.40909091 5:0.17350214 
-0 -0 2.5 0 1:0.0025986715 2:0.3805937 3:0.53333333 4:0.2 5:0.10379197 
-0 -0 0 2.5 1:0.0062232834 2:0.63536669 3:0.18518519 4:0.37037037 5:0.17116148 
-2.5 -0 0 2.5 1:0.006916718 2:0.61806461 3:0.17647059 4:0.52941176 5:0.16050114 
-2.5 -2.5 0 0 1:0.20287046 2:0.60553071 3:0.39285714 4:0.28571429 5:0.18990424 
-2.5 -2.5 0 0 1:0.093419369 2:0.62142061 3:0.27272727 4:0.3030303 5:0.2344094 
-2.488975455559284 -0 2.5 0 1:0.058020883 2:0.34050799 3:0.53333333 4:0.066666667 5:0.13125594 
-2.5 -0 0 2.5 1:0.0066534823 2:0.64430019 3:0.27272727 4:0.43181818 5:0.12513869 
-2.5 -0 0 0 1:0.088755525 2:0.62469942 3:0.36170213 4:0.21276596 5:0.12611338 
-2.5 -0 0 2.5 1:0.01704639 2:0.67421513 3:0.22222222 4:0.41666667 5:0.16316931 
-2.075305762692786 -0 0 0 1:0.0036969275 2:0.57090739 3:0.35714286 4:0.35714286 5:0.084766227 
-2.5 -0 0 2.5 1:0.0041255066 2:0.71319799 3:0.14285714 4:0.42857143 5:0.13021411 
-2.5 -2.5 0 2.5 1:0.29462529 2:0.57409577 3:0.18181818 4:0.5 5:0.13433191 
-2.5 -0 0 0 1:0.0070054089 2:0.62266483 3:0.34375 4:0.34375 5:0.12032101 
-2.5 -2.5 0 0 1:0.15718559 2:0.55863624 3:0.34782609 4:0.2173913 5:0.17734414 
-0 -0 0 2.5 1:0.011959795 2:0.68585087 3:0.17241379 4:0.34482759 5:0.16440799 
-0 -0 0 2.5 1:0.0025258069 2:0.68816248 3:0.13636364 4:0.36363636 5:0.16233013 
-2.5 -0 0 2.5 1:0.0077542437 2:0.63156826 3:0.24 4:0.48 5:0.10627675 
-2.5 -0 0 2.5 1:0.0043272483 2:0.62464401 3:0.2173913 4:0.47826087 5:0.14439997 
-2.5 -0 0 2.5 1:0.0072564115 2:0.66134591 3:0.16666667 4:0.38888889 5:0.20366851 
-2.5 -0 0 0 1:0.004041648 2:0.57136436 3:0.41666667 4:0.33333333 5:0.092598371 
-0 -0 0 2.5 1:0.0040701876 2:0.64580247 3:0.20689655 4:0.34482759 5:0.061842331 
-2.5 -2.5 0 0 1:0.013918166 2:0.47199628 3:0.5 4:0.17391304 5:0.63557502 
-2.5 -2.5 2.5 0 1:0.12286226 2:0.50534563 3:0.52 4:0.16 5:0.18314714 
-2.5 -0 0 0 1:0.12799802 2:0.49277037 3:0.39130435 4:0.26086957 5:0.14729141 
-0 -0 2.5 0 1:0.0061849979 2:0.47584653 3:0.48148148 4:0.11111111 5:0.14542439 
-0 -0 2.5 0 1:0.012475515 2:0.41144182 3:0.48148148 4:0.14814815 5:0.13280358 
-0 -0 2.5 0 1:0.0074442484 2:0.49337373 3:0.5 4:0.13333333 5:0.16087304 
-2.5 -0 2.5 0 1:0.11675104 2:0.43203197 3:0.52173913 4:0.13043478 5:0.14729434 
-2.5 -2.5 0 0 1:0.014086011 2:0.49825208 3:0.44262295 4:0.18032787 5:0.37090684 
-2.5 -0 0 0 1:0.0026215482 2:0.53785197 3:0.43902439 4:0.29268293 5:0.18446173 
-2.5 -2.5 0 0 1:0.0081661796 2:0.44717822 3:0.44067797 4:0.18644068 5:0.45533792 
-2.5 -2.5 0 0 1:0.016609584 2:0.49155357 3:0.46 4:0.14 5:0.4028882 
-2.5 -2.5 0.238211534078046 0 1:0.026018197 2:0.48593817 3:0.47368421 4:0.12280702 5:0.35694158 
-0 -2.5 0 0 1:0.018864296 2:0.47549852 3:0.43396226 4:0.094339623 5:0.33631319 
-0 -2.5 0 0 1:0.0089896899 2:0.502334 3:0.42592593 4:0.18518519 5:0.29632793 
-2.5 -2.5 0 0 1:0.019122678 2:0.45671598 3:0.45614035 4:0.15789474 5:0.35581777 
-2.5 -0 0 0 1:0.0049475412 2:0.48052215 3:0.5 4:0.23076923 5:0.20706163 
-2.5 -2.5 2.5 0 1:0.0091102514 2:0.47021531 3:0.52459016 4:0.14754098 5:0.29312988 
-0 -2.5 0 0 1:0.0064050369 2:0.45700112 3:0.45588235 4:0.13235294 5:0.39090964 
-2.5 -2.5 0 0 1:0.013704347 2:0.49006941 3:0.48275862 4:0.17241379 5:0.33590116 
-2.5 -2.5 2.5 0 1:0.1601391 2:0.48889347 3:0.39130435 4:0.13043478 5:0.173606 
-0 -0 2.5 0 1:0.0040502075 2:0.44105289 3:0.5 4:0.10714286 5:0.17072459 
-2.5 -2.5 0 0 1:0.12941149 2:0.56971385 3:0.41666667 4:0.16666667 5:0.1801015 
-2.5 -2.5 0 0 1:0.12356607 2:0.48446027 3:0.42857143 4:0.17857143 5:0.16645435 
-2.5 -0 0 0 1:0.027652148 2:0.48585328 3:0.42857143 4:0.23809524 5:0.17376129 
-0 -2.5 0 0 1:0.0056646117 2:0.48533504 3:0.42307692 4:0.17307692 5:0.33608774 
-2.5 -0 0 0 1:0.0043338998 2:0.56348664 3:0.44444444 4:0.25925926 5:0.16878076 
-2.5 -0 0 0 1:0.047921101 2:0.50537508 3:0.47619048 4:0.23809524 5:0.19868759 
-0 -0 2.5 0 1:0.0045669133 2:0.38124823 3:0.54545455 4:0.13636364 5:0.12703218 
-0 -0 2.5 0 1:0.0047543854 2:0.40105744 3:0.47826087 4:0.13043478 5:0.20223012 
-0 -0 2.5 0 1:0.0050589621 2:0.41246225 3:0.47826087 4:0.086956522 5:0.19503664 
-0 -0 2.5 0 1:0.033971827 2:0.49448148 3:0.5 4:0.083333333 5:0.16970043 
-0 -0 0 2.5 1:0.0034347633 2:0.57057966 3:0.14285714 4:0.33333333 5:0.1389882 
-2.5 -0 0 2.5 1:0.0043707669 2:0.64099964 3:0.25 4:0.40909091 5:0.077191441 
-0 -0 0 2.5 1:0.0026943879 2:0.6618102 3:0.16666667 4:0.375 5:0.14051355 
-0 -0 0 2.193289441491475 1:0.0041003583 2:0.65057198 3:0.23076923 4:0.34615385 5:0.1291127 
-2.5 -0 0 0 1:0.0029248361 2:0.59572167 3:0.36363636 4:0.31818182 5:0.16751028 
-2.5 -0 0 0 1:0.01789126 2:0.59301959 3:0.35 4:0.3 5:0.20107962 
-0.6002798928717209 -0 0 0 1:0.0030834699 2:0.62713561 3:0.22727273 4:0.36363636 5:0.20857653 
-0 -0 0 2.5 1:0.0061884273 2:0.67664915 3:0.13636364 4:0.27272727 5:0.22153645 
-0 -0 0 2.5 1:0.0034462012 2:0.66725021 3:0.15 4:0.3 5:0.1196575 
-0 -0 0 2.5 1:0.012181987 2:0.54668502 3:0.16216216 4:0.32432432 5:0.14395085 
-2.5 -0 0 0 1:0.0053564034 2:0.61649358 3:0.28571429 4:0.38095238 5:0.13780431 
-0 -2.5 -0 0 1:0.51370749 2:0.35688417 3:0.96153846 4:0 5:0.28243071 
-2.5 -2.5 -0 0 1:0.60597133 2:0.4278332 3:0.77777778 4:0 5:0.21762295 
-2.5 -0 -0 0 1:0.70431146 2:0.41962442 3:0.72972973 4:0 5:0.20307124 
-0 -2.5 -0 0 1:0.53168389 2:0.30463817 3:1 4:0 5:0.28281027 
-0 -2.5 -0 0 1:0.52393016 2:0.25700883 3:0.91304348 4:0 5:0.32548021 
-0 -2.5 -0 0 1:0.47894208 2:0.3436538 3:0.86363636 4:0 5:0.27211063 
-0 -2.5 -0 0 1:0.58306944 2:0.34627057 3:0.96428571 4:0 5:0.28514011 
-2.5 -0 -2.5 0 1:0.15384422 2:0.39394568 3:0.63636364 4:0 5:0.080977792 
-0 -2.5 -0 0 1:0.63527742 2:0.36200172 3:1 4:0 5:0.26348524 
-0 -2.5 -0 0 1:0.7807332 2:0.40098083 3:0.92857143 4:0 5:0.25354042 
-2.5 -2.5 -0 0 1:0.75053343 2:0.41978369 3:0.5625 4:0 5:0.19038856 
-2.5 -2.5 -0 0 1:0.72515323 2:0.42628781 3:0.58333333 4:0 5:0.19723505 
-0 -0.4036713191889253 -0 0 1:0.73743165 2:0.2183173 3:1 4:0 5:0.23004322 
-0 -2.5 -0 0 1:0.77866565 2:0.22461732 3:0.96666667 4:0 5:0.28678525 
-0 -2.5 -0 0 1:0.57057454 2:0.25846206 3:0.94285714 4:0 5:0.21471346 
-2.5 -0 -2.5 0 1:0.00085603813 2:0.44423819 3:0.66666667 4:0 5:0.099808825 
-2.5 -2.5 -2.5 2.5 1:0.41063829 2:0.46399375 3:0.35714286 4:0 5:0.22098929 
-2.5 -2.5 -2.5 0 1:0.14844721 2:0.42776668 3:0.6875 4:0 5:0.18279197 
-2.5 -2.5 -0 0 1:0.20305711 2:0.42745867 3:0.75 4:0 5:0.19418688 
-2.5 -2.5 -2.5 2.5 1:0.21976318 2:0.49092042 3:0.27777778 4:0 5:0.17006641 
-0.2430852299565981 -0 -2.5 0 1:0.0034231056 2:0.36860882 3:0.73684211 4:0.052631579 5:0.12601081 
-0 -2.5 -0 0 1:0.68412849 2:0.38879963 3:0.96666667 4:0 5:0.36591677 
-0 -2.5 -0 0 1:0.54785655 2:0.32629688 3:0.96666667 4:0 5:0.24768188 
-2.5 -2.5 -2.5 0 1:0.11357643 2:0.44193731 3:0.72727273 4:0.03030303 5:0.42242388 
-0 -2.5 -0 0 1:0.62855941 2:0.3742051 3:1 4:0 5:0.27375357 
-2.5 -2.5 -1.658340720553511 0 1:0.37797354 2:0.4422258 3:0.53333333 4:0 5:0.2360913 
-2.5 -2.5 -0 0 1:0.46887889 2:0.43768561 3:0.76470588 4:0.029411765 5:0.33507584 
-0 -2.5 -0 0 1:0.49139434 2:0.40373814 3:0.89655172 4:0 5:0.2400451 
-1.630370180201401 -2.5 -0 0 1:0.46225102 2:0.41838298 3:0.83333333 4:0 5:0.26513173 
-0 -2.5 -0 0 1:0.66581881 2:0.36574721 3:1 4:0 5:0.3119776 
-2.5 -2.5 -0 1.310371627170567 1:0.6410113 2:0.45027414 3:0.46666667 4:0 5:0.19936519 
-0 -2.5 -0 0 1:0.20741561 2:0.36253437 3:0.75 4:0 5:0.18080956 
-2.5 -2.5 -2.5 2.5 1:0.40691344 2:0.51194044 3:0 4:0 5:0.092414932 
-0 -0 -1.079870813524535 0 1:0.0011065108 2:0.38183421 3:0.77777778 4:0 5:0.12694765 
-2.5 -0 -2.5 0 1:0.0062703764 2:0.35388848 3:0.58823529 4:0 5:0.11549045 
-2.5 -2.5 -0 0 1:0.61231015 2:0.4147085 3:0.78571429 4:0 5:0.26608802 
-2.5 -2.5 -2.5 2.5 1:0.313831 2:0.46534356 3:0.45454545 4:0 5:0.18696758 
-0 -2.5 -0 0 1:0.41743052 2:0.35809932 3:0.90909091 4:0 5:0.22991726 
-0 -2.5 -0 0 1:0.41272561 2:0.40502546 3:0.875 4:0 5:0.21336583 
-2.5 -2.5 -0 0 1:0.53075351 2:0.43528586 3:0.5625 4:0 5:0.24489123 
-0 -0 -2.5 0 1:0.0003435799 2:0.434105 3:0.71428571 4:0 5:0.11889415 
-0 -2.5 -0 0 1:0.59001998 2:0.17164967 3:0.75 4:0 5:0.24183458 
-2.5 -2.5 -0 0 1:0.27348719 2:0.42526751 3:0.77777778 4:0.055555556 5:0.23213968 
-2.5 -0 -0 0 1:0.69760299 2:0.41423479 3:0.66666667 4:0 5:0.12541236 
-0 -0 -2.5 0 1:0.0040911738 2:0.41820448 3:0.7037037 4:0 5:0.11219686 
-0 -2.5 -2.5 0 1:0.0012467841 2:0.19796642 3:0.66666667 4:0 5:0.12878366 
-0 -2.463384090445547 -0 0 1:0.0012217776 2:0.23186232 3:0.76923077 4:0 5:0.1367741 
-0 -2.5 -0 0 1:0.68350433 2:0.3177643 3:1 4:0 5:0.27223151 
-0 -0 -2.5 0 1:0.0038058197 2:0.4068186 3:0.71428571 4:0 5:0.09549192 
-0 -1.079351086337435 -2.5 0 1:0.061914372 2:0.33644079 3:0.76923077 4:0.076923077 5:0.13087638 
-0 -2.5 -0 0 1:0.82623408 2:0.32905158 3:1 4:0 5:0.29076236 
-2.5 -1.272529532645233 -0 0 1:0.80562373 2:0.42443754 3:0.66666667 4:0 5:0.20392909 
-2.5 -0 -0 0 1:0.2945464 2:0.47676199 3:0.85714286 4:0.14285714 5:0.087384094 
-2.5 -0 -2.5 0 1:0.00046535748 2:0.42433735 3:0.66666667 4:0 5:0.083457997 
-2.5 -2.5 -0 0 1:0.16922635 2:0.38976659 3:0.85714286 4:0.14285714 5:0.14572354 
-2.5 -2.5 -0 0 1:0.48873255 2:0.41208486 3:0.75 4:0 5:0.18852646 
-2.5 -0 -0 0 1:0.23588448 2:0.41053882 3:0.7 4:0 5:0.1265215 
-0 -2.5 -0 -0 1:0.62955523 2:0.80976781 3:0 4:0.92857143 5:0.32980946 
-1.443230529135548 -0 -0 -0 1:0.63398511 2:0.73326272 3:0 4:0.4 5:0.17052012 
-2.5 -2.5 -0 -0 1:0.67602104 2:0.70954424 3:0 4:0.5625 5:0.32909487 
-2.5 -2.5 -0 -0 1:0.64241863 2:0.69206277 3:0.041666667 4:0.45833333 5:0.2457747 
-2.5 -0 -2.5 -0 1:0.030296283 2:0.70253524 3:0.1 4:0.4 5:0.10647722 
-0 -0 -2.5 -0 1:0.0006278951 2:0.67724116 3:0 4:0.375 5:0.088852483 
-0 -2.5 -0 -0 1:0.61447416 2:0.76050933 3:0 4:0.83333333 5:0.37027117 
-0 -2.5 -0 -0 1:0.66925091 2:0.7544126 3:0 4:0.88571429 5:0.41877435 
-2.5 -2.5 -0 -1.421551609782762 1:0.54350538 2:0.68388377 3:0 4:0.2 5:0.13334165 
-2.5 -2.5 -0 -2.5 1:0.70346033 2:0.66956457 3:0 4:0.1 5:0.24331166 
-2.5 -0 -0 -0 1:0.53213255 2:0.69841092 3:0 4:0.55555556 5:0.19374654 
-0 -0.302072891424493 -0 -0 1:0.047442815 2:0.79271185 3:0 4:0.82352941 5:0.21370831 
-2.5 -2.5 -2.5 -2.5 1:0.001191854 2:0.63184963 3:0 4:0 5:0.080709041 
-2.5 -2.5 -0 -0 1:0.42336045 2:0.69944799 3:0 4:0.42105263 5:0.25616816 
-2.5 -0 -0 -0 1:0.57344511 2:0.69247195 3:0 4:0.36363636 5:0.15662477 
-0 -0 -2.5 -0 1:0.00067044941 2:0.70037944 3:0 4:0.33333333 5:0.095278417 
-2.5 -2.5 -2.101910505260316 -2.5 1:0.54407879 2:0.66935459 3:0.04 4:0.24 5:0.18906587 
-2.5 -2.5 -1.983516277096964 -0 1:0.33015547 2:0.68654906 3:0.064516129 4:0.48387097 5:0.29721699 
-2.5 -2.5 -2.5 -0 1:0.33181194 2:0.7000332 3:0 4:0.325 5:0.28277065 
-0 -2.5 -0 -0 1:0.22078633 2:0.74191401 3:0 4:0.84 5:0.28463128 
-0 -2.5 -0 -0 1:0.50285593 2:0.79221532 3:0.034482759 4:0.82758621 5:0.27809479 
-0 -2.5 -0 -0 1:0.54336949 2:0.82692057 3:0 4:1 5:0.32690326 
-1.898652336195053 -2.5 -0 -0 1:0.33307146 2:0.82273603 3:0.035714286 4:0.82142857 5:0.3663571 
-0 -0 -2.5 -0 1:0.0022870864 2:0.69975364 3:0 4:0.45 5:0.10294008 
-0 -0 -2.5 -0 1:0.0039135347 2:0.69282093 3:0 4:0.5 5:0.10263735 
-2.5 -2.5 -0 -0 1:0.55235403 2:0.69884762 3:0.038461538 4:0.61538462 5:0.25177935 
-0 -2.5 -0 -0 1:0.33530071 2:0.78035708 3:0.05 4:0.9 5:0.28696978 
-0 -2.5 -0 -0 1:0.32875186 2:0.75406166 3:0 4:0.72 5:0.25297194 
-2.5 -2.5 -2.5 -1.420084875531603 1:0.0025567891 2:0.67366137 3:0 4:0.14285714 5:0.10376211 
-0 -2.5 -0 -0 1:0.65654224 2:0.83435661 3:0 4:1 5:0.3121907 
-0 -2.5 -0 -0 1:0.55181605 2:0.79547904 3:0.0625 4:0.8125 5:0.26509572 
-2.5 -0 -2.5 -0 1:0.023564527 2:0.72530326 3:0.25 4:0.75 5:0.10435893 
-2.5 -0 -2.5 -0 1:0.003662804 2:0.62211229 3:0.16666667 4:0.66666667 5:0.14361198 
-0 -0.5894406204071027 -1.066096266018521 -0 1:0.0024715215 2:0.93377843 3:0 4:0.33333333 5:0.14043758 
-2.5 -0 -2.5 -0 1:0.041037403 2:0.92159843 3:0.125 4:0.375 5:0.1037821 
-0 -0 -2.041766393115674 -0 1:0.0031558904 2:0.64414897 3:0 4:0.57142857 5:0.083907909 
-2.5 -0 -2.5 -0 1:0.013237526 2:0.73976431 3:0.25 4:0.625 5:0.11459452 
-2.5 -0 -2.5 -0 1:0.083483948 2:0.65212171 3:0.14285714 4:0.57142857 5:0.091291805 
-2.5 -0 -2.5 -0 1:0.0089923057 2:0.64404939 3:0.16666667 4:0.66666667 5:0.11942432 
-2.5 -0 -2.5 -0 1:0.008128341 2:0.64959196 3:0.14285714 4:0.71428571 5:0.094562882 
-2.5 -0 -2.5 -0.9687351418562031 1:0.023702951 2:0.59542499 3:0.25 4:0.625 5:0.10153562 
-0 -2.5 -0 -0 1:0.58310395 2:0.83112089 3:0 4:0.95652174 5:0.27955865 
-0 -0 -2.5 -0 1:0.0079923982 2:0.68937723 3:0.066666667 4:0.6 5:0.12496152 
-0 -2.5 -0 -0 1:0.60916637 2:0.85392196 3:0 4:1 5:0.29664329 
-0 -2.5 -0 -0 1:0.34738195 2:0.81677844 3:0 4:0.9375 5:0.32560628 
-2.5 -2.5 -0 -0 1:0.34747383 2:0.6858575 3:0 4:0.5 5:0.24356708 
-0 -2.5 -0 -0 1:0.44341829 2:0.84494806 3:0 4:0.875 5:0.29472653 
-0 -2.5 -0 -0 1:0.31041219 2:0.79500809 3:0 4:0.83333333 5:0.24208098 
-2.5 -2.5 -0 -0 1:0.19490506 2:0.68858507 3:0.066666667 4:0.73333333 5:0.27765553 
-0 -2.5 -0 -0 1:0.3777392 2:0.80690359 3:0 4:0.86666667 5:0.27014979 
-0 -2.5 -0 -0 1:0.3834879 2:0.84026647 3:0 4:0.92307692 5:0.25222677 
-1.78749311335348 -0 -0 -0 1:0.10602812 2:0.69999041 3:0.125 4:0.75 5:0.09388979 
-0 -0.1489337553896855 -2.5 -0 1:0.00030343978 2:0.69764833 3:0 4:0.2 5:0.1112529 
-0 -2.5 -0 -0 1:0.77278326 2:0.82371851 3:0 4:1 5:0.34065297 
-0 -2.5 -0 -0 1:0.64777654 2:0.79979132 3:0 4:0.95 5:0.29547571 
-0 -2.5 -0 -0 1:0.64950168 2:0.76519492 3:0 4:0.95454545 5:0.32452546 
-0 -2.5 -0 -0 1:0.67383738 2:0.84528324 3:0 4:0.95454545 5:0.33030756 
